digraph Tree {
node [shape=box, style="filled, rounded", color="black", fontname=helvetica] ;
edge [fontname=helvetica] ;
0 [label="petal length (cm) <= 2.6\ngini = 0.66\nsamples = 91\nvalue = [56, 41, 53]\nclass = setosa", fillcolor="#fefbf9"] ;
1 [label="gini = 0.0\nsamples = 34\nvalue = [56, 0, 0]\nclass = setosa", fillcolor="#e58139"] ;
0 -> 1 [labeldistance=2.5, labelangle=45, headlabel="True"] ;
2 [label="sepal length (cm) <= 6.35\ngini = 0.49\nsamples = 57\nvalue = [0, 41, 53]\nclass = virginica", fillcolor="#e2d2f9"] ;
0 -> 2 [labeldistance=2.5, labelangle=-45, headlabel="False"] ;
3 [label="petal length (cm) <= 4.85\ngini = 0.48\nsamples = 29\nvalue = [0, 31, 20]\nclass = versicolor", fillcolor="#b9f6d2"] ;
2 -> 3 ;
4 [label="petal width (cm) <= 1.65\ngini = 0.12\nsamples = 18\nvalue = [0, 29, 2]\nclass = versicolor", fillcolor="#47e78a"] ;
3 -> 4 ;
5 [label="gini = 0.0\nsamples = 16\nvalue = [0, 28, 0]\nclass = versicolor", fillcolor="#39e581"] ;
4 -> 5 ;
6 [label="sepal length (cm) <= 5.4\ngini = 0.44\nsamples = 2\nvalue = [0, 1, 2]\nclass = virginica", fillcolor="#c09cf2"] ;
4 -> 6 ;
7 [label="gini = 0.0\nsamples = 1\nvalue = [0, 0, 2]\nclass = virginica", fillcolor="#8139e5"] ;
6 -> 7 ;
8 [label="gini = 0.0\nsamples = 1\nvalue = [0, 1, 0]\nclass = versicolor", fillcolor="#39e581"] ;
6 -> 8 ;
9 [label="sepal width (cm) <= 2.55\ngini = 0.18\nsamples = 11\nvalue = [0, 2, 18]\nclass = virginica", fillcolor="#8f4fe8"] ;
3 -> 9 ;
10 [label="gini = 0.0\nsamples = 1\nvalue = [0, 2, 0]\nclass = versicolor", fillcolor="#39e581"] ;
9 -> 10 ;
11 [label="gini = 0.0\nsamples = 10\nvalue = [0, 0, 18]\nclass = virginica", fillcolor="#8139e5"] ;
9 -> 11 ;
12 [label="petal width (cm) <= 1.55\ngini = 0.36\nsamples = 28\nvalue = [0, 10, 33]\nclass = virginica", fillcolor="#a775ed"] ;
2 -> 12 ;
13 [label="gini = 0.0\nsamples = 6\nvalue = [0, 10, 0]\nclass = versicolor", fillcolor="#39e581"] ;
12 -> 13 ;
14 [label="gini = 0.0\nsamples = 22\nvalue = [0, 0, 33]\nclass = virginica", fillcolor="#8139e5"] ;
12 -> 14 ;
}